<?xml version="1.0"?>
<opencv_storage>
<stage6>
  <maxWeakCount>5</maxWeakCount>
  <stageThreshold>-1.6208629608154297e+00</stageThreshold>
  <weakClassifiers>
    <_>
      <internalNodes>
        0 -1 8842 1.5316873788833618e-02</internalNodes>
      <leafValues>
        -8.8358777761459351e-01 5.3571426868438721e-01</leafValues></_>
    <_>
      <internalNodes>
        0 -1 44349 -7.4531841091811657e-03</internalNodes>
      <leafValues>
        7.2344446182250977e-01 -6.2005633115768433e-01</leafValues></_>
    <_>
      <internalNodes>
        0 -1 147575 5.1185055635869503e-03</internalNodes>
      <leafValues>
        -4.0888804197311401e-01 6.2288689613342285e-01</leafValues></_>
    <_>
      <internalNodes>
        0 -1 46584 8.0126458778977394e-03</internalNodes>
      <leafValues>
        -3.5143327713012695e-01 8.0988490581512451e-01</leafValues></_>
    <_>
      <internalNodes>
        0 -1 68551 -3.3957306295633316e-03</internalNodes>
      <leafValues>
        6.4310252666473389e-01 -3.7209308147430420e-01</leafValues></_></weakClassifiers></stage6>
</opencv_storage>
