<?xml version="1.0"?>
<opencv_storage>
<stage5>
  <maxWeakCount>6</maxWeakCount>
  <stageThreshold>-2.2023296356201172e+00</stageThreshold>
  <weakClassifiers>
    <_>
      <internalNodes>
        0 -1 231 4.1854869574308395e-02</internalNodes>
      <leafValues>
        -8.8469183444976807e-01 -6.1224490404129028e-02</leafValues></_>
    <_>
      <internalNodes>
        0 -1 251 4.3210543692111969e-02</internalNodes>
      <leafValues>
        -8.4864604473114014e-01 1.3115227222442627e-01</leafValues></_>
    <_>
      <internalNodes>
        0 -1 235 3.9375249296426773e-02</internalNodes>
      <leafValues>
        -6.3073003292083740e-01 3.2387691736221313e-01</leafValues></_>
    <_>
      <internalNodes>
        0 -1 148 2.4667609483003616e-02</internalNodes>
      <leafValues>
        -6.4473533630371094e-01 2.9222002625465393e-01</leafValues></_>
    <_>
      <internalNodes>
        0 -1 15 4.5246086083352566e-03</internalNodes>
      <leafValues>
        5.3767460584640503e-01 -4.4624492526054382e-01</leafValues></_>
    <_>
      <internalNodes>
        0 -1 96 1.4394240453839302e-02</internalNodes>
      <leafValues>
        -7.2073924541473389e-01 2.9811164736747742e-01</leafValues></_></weakClassifiers></stage5>
</opencv_storage>
