<?xml version="1.0"?>
<opencv_storage>
<stage7>
  <maxWeakCount>6</maxWeakCount>
  <stageThreshold>-1.9118132591247559e+00</stageThreshold>
  <weakClassifiers>
    <_>
      <internalNodes>
        0 -1 111831 2.3890860378742218e-02</internalNodes>
      <leafValues>
        -8.7382298707962036e-01 7.6190477609634399e-01</leafValues></_>
    <_>
      <internalNodes>
        0 -1 59656 -3.7263214588165283e-02</internalNodes>
      <leafValues>
        6.3460737466812134e-01 -5.9202367067337036e-01</leafValues></_>
    <_>
      <internalNodes>
        0 -1 9528 -3.1415275298058987e-03</internalNodes>
      <leafValues>
        -1. 1.6399623453617096e-01</leafValues></_>
    <_>
      <internalNodes>
        0 -1 88539 -3.4091767156496644e-04</internalNodes>
      <leafValues>
        3.8838881254196167e-01 -5.1550501585006714e-01</leafValues></_>
    <_>
      <internalNodes>
        0 -1 78452 -2.2221747785806656e-02</internalNodes>
      <leafValues>
        -9.3176174163818359e-01 2.5699463486671448e-01</leafValues></_>
    <_>
      <internalNodes>
        0 -1 37419 5.9675320982933044e-02</internalNodes>
      <leafValues>
        -3.5145246982574463e-01 7.1301740407943726e-01</leafValues></_></weakClassifiers></stage7>
</opencv_storage>
