<?xml version="1.0"?>
<opencv_storage>
<stage5>
  <maxWeakCount>5</maxWeakCount>
  <stageThreshold>-1.8855253458023071e+00</stageThreshold>
  <weakClassifiers>
    <_>
      <internalNodes>
        0 -1 31126 2.2465385496616364e-02</internalNodes>
      <leafValues>
        -9.3974733352661133e-01 7.5000000000000000e-01</leafValues></_>
    <_>
      <internalNodes>
        0 -1 118985 1.3282334432005882e-02</internalNodes>
      <leafValues>
        -7.9991030693054199e-01 4.9352499842643738e-01</leafValues></_>
    <_>
      <internalNodes>
        0 -1 81678 -3.3326380071230233e-04</internalNodes>
      <leafValues>
        -7.1308547258377075e-01 5.8581322431564331e-01</leafValues></_>
    <_>
      <internalNodes>
        0 -1 162252 4.4727843487635255e-04</internalNodes>
      <leafValues>
        3.1789332628250122e-01 -9.3681508302688599e-01</leafValues></_>
    <_>
      <internalNodes>
        0 -1 82277 -7.6199787145014852e-05</internalNodes>
      <leafValues>
        -9.9567061662673950e-01 2.4932439625263214e-01</leafValues></_></weakClassifiers></stage5>
</opencv_storage>
