<?xml version="1.0"?>
<opencv_storage>
<stage4>
  <maxWeakCount>6</maxWeakCount>
  <stageThreshold>-2.2053039073944092e+00</stageThreshold>
  <weakClassifiers>
    <_>
      <internalNodes>
        0 -1 16 3.6290119169279933e-04</internalNodes>
      <leafValues>
        2.7777779102325439e-01 -8.8759690523147583e-01</leafValues></_>
    <_>
      <internalNodes>
        0 -1 204 3.4393243491649628e-02</internalNodes>
      <leafValues>
        -7.3877781629562378e-01 3.9233139157295227e-01</leafValues></_>
    <_>
      <internalNodes>
        0 -1 270 1.8651213496923447e-02</internalNodes>
      <leafValues>
        -8.0170869827270508e-01 2.3921674489974976e-01</leafValues></_>
    <_>
      <internalNodes>
        0 -1 15 5.4352195002138615e-03</internalNodes>
      <leafValues>
        4.7127488255500793e-01 -5.4352295398712158e-01</leafValues></_>
    <_>
      <internalNodes>
        0 -1 95 2.1782308816909790e-02</internalNodes>
      <leafValues>
        -5.8881860971450806e-01 4.6989721059799194e-01</leafValues></_>
    <_>
      <internalNodes>
        0 -1 83 2.3858061060309410e-02</internalNodes>
      <leafValues>
        -7.5020605325698853e-01 3.1419572234153748e-01</leafValues></_></weakClassifiers></stage4>
</opencv_storage>
