<?xml version="1.0"?>
<opencv_storage>
<stage9>
  <maxWeakCount>5</maxWeakCount>
  <stageThreshold>-1.4924880266189575e+00</stageThreshold>
  <weakClassifiers>
    <_>
      <internalNodes>
        0 -1 118644 -1.2635285966098309e-02</internalNodes>
      <leafValues>
        3.1343284249305725e-01 -8.8428157567977905e-01</leafValues></_>
    <_>
      <internalNodes>
        0 -1 146036 5.0187267363071442e-02</internalNodes>
      <leafValues>
        -6.3351064920425415e-01 4.0147325396537781e-01</leafValues></_>
    <_>
      <internalNodes>
        0 -1 138278 -5.7570789940655231e-03</internalNodes>
      <leafValues>
        6.6783010959625244e-01 -4.2939618229866028e-01</leafValues></_>
    <_>
      <internalNodes>
        0 -1 162233 -2.2502271167468280e-04</internalNodes>
      <leafValues>
        -9.6255379915237427e-01 2.4674688279628754e-01</leafValues></_>
    <_>
      <internalNodes>
        0 -1 162246 -7.0757127832621336e-04</internalNodes>
      <leafValues>
        -9.4808161258697510e-01 2.0795343816280365e-01</leafValues></_></weakClassifiers></stage9>
</opencv_storage>
