<?xml version="1.0"?>
<opencv_storage>
<stage3>
  <maxWeakCount>5</maxWeakCount>
  <stageThreshold>-1.5596669912338257e+00</stageThreshold>
  <weakClassifiers>
    <_>
      <internalNodes>
        0 -1 14211 3.8246816396713257e-01</internalNodes>
      <leafValues>
        -9.0135395526885986e-01 5.1428574323654175e-01</leafValues></_>
    <_>
      <internalNodes>
        0 -1 50012 -2.8429605299606919e-04</internalNodes>
      <leafValues>
        -7.6477485895156860e-01 3.2289361953735352e-01</leafValues></_>
    <_>
      <internalNodes>
        0 -1 36546 -3.7104666233062744e-02</internalNodes>
      <leafValues>
        7.6135164499282837e-01 -5.2574473619461060e-01</leafValues></_>
    <_>
      <internalNodes>
        0 -1 70878 7.7660311944782734e-04</internalNodes>
      <leafValues>
        3.3754828572273254e-01 -9.1526365280151367e-01</leafValues></_>
    <_>
      <internalNodes>
        0 -1 89354 1.0797202587127686e-02</internalNodes>
      <leafValues>
        2.9465821385383606e-01 -8.9687800407409668e-01</leafValues></_></weakClassifiers></stage3>
</opencv_storage>
