<?xml version="1.0"?>
<opencv_storage>
<stage1>
  <maxWeakCount>6</maxWeakCount>
  <stageThreshold>-1.4254318475723267e+00</stageThreshold>
  <weakClassifiers>
    <_>
      <internalNodes>
        0 -1 111036 1.5410691499710083e-02</internalNodes>
      <leafValues>
        -8.9837008714675903e-01 6.7213112115859985e-01</leafValues></_>
    <_>
      <internalNodes>
        0 -1 5870 -1.2689891271293163e-02</internalNodes>
      <leafValues>
        6.2142431735992432e-01 -6.6050833463668823e-01</leafValues></_>
    <_>
      <internalNodes>
        0 -1 159257 -1.8580025061964989e-02</internalNodes>
      <leafValues>
        7.7454417943954468e-01 -5.6036955118179321e-01</leafValues></_>
    <_>
      <internalNodes>
        0 -1 49447 -6.0721412301063538e-03</internalNodes>
      <leafValues>
        -8.4159696102142334e-01 3.9638009667396545e-01</leafValues></_>
    <_>
      <internalNodes>
        0 -1 22152 -1.0739337652921677e-02</internalNodes>
      <leafValues>
        8.3277261257171631e-01 -3.5467854142189026e-01</leafValues></_>
    <_>
      <internalNodes>
        0 -1 109199 -1.0384370572865009e-02</internalNodes>
      <leafValues>
        6.5211462974548340e-01 -4.0924519300460815e-01</leafValues></_></weakClassifiers></stage1>
</opencv_storage>
