<?xml version="1.0"?>
<opencv_storage>
<stage4>
  <maxWeakCount>5</maxWeakCount>
  <stageThreshold>-1.7395950555801392e+00</stageThreshold>
  <weakClassifiers>
    <_>
      <internalNodes>
        0 -1 111450 1.8326688557863235e-02</internalNodes>
      <leafValues>
        -8.8740456104278564e-01 6.0714286565780640e-01</leafValues></_>
    <_>
      <internalNodes>
        0 -1 43707 -3.3912272192537785e-03</internalNodes>
      <leafValues>
        5.0687402486801147e-01 -6.7894649505615234e-01</leafValues></_>
    <_>
      <internalNodes>
        0 -1 19587 7.1947621181607246e-03</internalNodes>
      <leafValues>
        -4.3666651844978333e-01 7.7569597959518433e-01</leafValues></_>
    <_>
      <internalNodes>
        0 -1 60972 -4.4264823372941464e-05</internalNodes>
      <leafValues>
        -4.9504363536834717e-01 5.4935240745544434e-01</leafValues></_>
    <_>
      <internalNodes>
        0 -1 30360 1.3828312978148460e-02</internalNodes>
      <leafValues>
        -2.8592988848686218e-01 9.1461545228958130e-01</leafValues></_></weakClassifiers></stage4>
</opencv_storage>
