<?xml version="1.0"?>
<opencv_storage>
<cascade>
  <stageType>BOOST</stageType>
  <featureType>HAAR</featureType>
  <height>24</height>
  <width>24</width>
  <stageParams>
    <boostType>GAB</boostType>
    <minHitRate>9.9500000476837158e-01</minHitRate>
    <maxFalseAlarm>5.0000000000000000e-01</maxFalseAlarm>
    <weightTrimRate>9.4999998807907104e-01</weightTrimRate>
    <maxDepth>1</maxDepth>
    <maxWeakCount>100</maxWeakCount></stageParams>
  <featureParams>
    <maxCatCount>0</maxCatCount>
    <featSize>1</featSize>
    <mode>BASIC</mode></featureParams>
  <stageNum>6</stageNum>
  <stages>
    <!-- stage 0 -->
    <_>
      <maxWeakCount>4</maxWeakCount>
      <stageThreshold>-1.6981629133224487e+00</stageThreshold>
      <weakClassifiers>
        <_>
          <internalNodes>
            0 -1 11 3.2514076679944992e-02</internalNodes>
          <leafValues>
            -9.5499020814895630e-01 8.1818181276321411e-01</leafValues></_>
        <_>
          <internalNodes>
            0 -1 9 -5.1664244383573532e-02</internalNodes>
          <leafValues>
            8.0554801225662231e-01 -8.3017748594284058e-01</leafValues></_>
        <_>
          <internalNodes>
            0 -1 0 3.1063325703144073e-02</internalNodes>
          <leafValues>
            -7.3066955804824829e-01 6.1523747444152832e-01</leafValues></_>
        <_>
          <internalNodes>
            0 -1 14 2.1426167804747820e-03</internalNodes>
          <leafValues>
            -4.8708513379096985e-01 8.1767433881759644e-01</leafValues></_></weakClassifiers></_>
    <!-- stage 1 -->
    <_>
      <maxWeakCount>3</maxWeakCount>
      <stageThreshold>-1.0755730867385864e+00</stageThreshold>
      <weakClassifiers>
        <_>
          <internalNodes>
            0 -1 8 9.6973404288291931e-02</internalNodes>
          <leafValues>
            -9.5882350206375122e-01 8.4615385532379150e-01</leafValues></_>
        <_>
          <internalNodes>
            0 -1 15 8.8904739823192358e-04</internalNodes>
          <leafValues>
            -9.0790075063705444e-01 6.6381120681762695e-01</leafValues></_>
        <_>
          <internalNodes>
            0 -1 17 -7.1164185646921396e-04</internalNodes>
          <leafValues>
            7.9345804452896118e-01 -7.8056073188781738e-01</leafValues></_></weakClassifiers></_>
    <!-- stage 2 -->
    <_>
      <maxWeakCount>5</maxWeakCount>
      <stageThreshold>-1.2036516666412354e+00</stageThreshold>
      <weakClassifiers>
        <_>
          <internalNodes>
            0 -1 5 8.7381206452846527e-02</internalNodes>
          <leafValues>
            -9.5866143703460693e-01 4.1176471114158630e-01</leafValues></_>
        <_>
          <internalNodes>
            0 -1 7 -1.3812322914600372e-01</internalNodes>
          <leafValues>
            7.4367916584014893e-01 -8.1523030996322632e-01</leafValues></_>
        <_>
          <internalNodes>
            0 -1 10 1.3843154907226563e-01</internalNodes>
          <leafValues>
            -6.4385169744491577e-01 7.1278351545333862e-01</leafValues></_>
        <_>
          <internalNodes>
            0 -1 18 -3.1714422220829874e-05</internalNodes>
          <leafValues>
            -1. 2.9479479789733887e-01</leafValues></_>
        <_>
          <internalNodes>
            0 -1 16 1.4054335653781891e-02</internalNodes>
          <leafValues>
            -4.3348327279090881e-01 9.1929686069488525e-01</leafValues></_></weakClassifiers></_>
    <!-- stage 3 -->
    <_>
      <maxWeakCount>3</maxWeakCount>
      <stageThreshold>-1.6594754457473755e+00</stageThreshold>
      <weakClassifiers>
        <_>
          <internalNodes>
            0 -1 3 6.4454220235347748e-02</internalNodes>
          <leafValues>
            -9.5682042837142944e-01 5.7142859697341919e-01</leafValues></_>
        <_>
          <internalNodes>
            0 -1 18 3.9997750718612224e-05</internalNodes>
          <leafValues>
            1.2271088548004627e-02 -9.5114827156066895e-01</leafValues></_>
        <_>
          <internalNodes>
            0 -1 12 5.8497622376307845e-05</internalNodes>
          <leafValues>
            2.4849326908588409e-01 -1.</leafValues></_></weakClassifiers></_>
    <!-- stage 4 -->
    <_>
      <maxWeakCount>4</maxWeakCount>
      <stageThreshold>-2.3318598270416260e+00</stageThreshold>
      <weakClassifiers>
        <_>
          <internalNodes>
            0 -1 2 3.4358048439025879e-01</internalNodes>
          <leafValues>
            -9.4741964340209961e-01 1.</leafValues></_>
        <_>
          <internalNodes>
            0 -1 12 -2.7669502742355689e-05</internalNodes>
          <leafValues>
            -9.5396655797958374e-01 2.1224435418844223e-02</leafValues></_>
        <_>
          <internalNodes>
            0 -1 13 -1.3383682072162628e-01</internalNodes>
          <leafValues>
            3.8450777530670166e-01 -7.5728273391723633e-01</leafValues></_>
        <_>
          <internalNodes>
            0 -1 19 2.4630594998598099e-04</internalNodes>
          <leafValues>
            3.2680928707122803e-01 -9.5260149240493774e-01</leafValues></_></weakClassifiers></_>
    <!-- stage 5 -->
    <_>
      <maxWeakCount>4</maxWeakCount>
      <stageThreshold>-2.0639674663543701e+00</stageThreshold>
      <weakClassifiers>
        <_>
          <internalNodes>
            0 -1 6 1.3713875412940979e-01</internalNodes>
          <leafValues>
            -9.5117187500000000e-01 7.7777779102325439e-01</leafValues></_>
        <_>
          <internalNodes>
            0 -1 4 -6.2875086441636086e-03</internalNodes>
          <leafValues>
            4.1180709004402161e-01 -8.2094055414199829e-01</leafValues></_>
        <_>
          <internalNodes>
            0 -1 1 3.0825586989521980e-02</internalNodes>
          <leafValues>
            -6.4411848783493042e-01 6.1873203516006470e-01</leafValues></_>
        <_>
          <internalNodes>
            0 -1 19 -1.3405474601313472e-04</internalNodes>
          <leafValues>
            -9.7318023443222046e-01 3.5226351022720337e-01</leafValues></_></weakClassifiers></_></stages>
  <features>
    <_>
      <rects>
        <_>
          0 1 4 17 -1.</_>
        <_>
          2 1 2 17 2.</_></rects>
      <tilted>0</tilted></_>
    <_>
      <rects>
        <_>
          0 13 6 10 -1.</_>
        <_>
          2 13 2 10 3.</_></rects>
      <tilted>0</tilted></_>
    <_>
      <rects>
        <_>
          1 0 13 20 -1.</_>
        <_>
          1 10 13 10 2.</_></rects>
      <tilted>0</tilted></_>
    <_>
      <rects>
        <_>
          1 7 8 10 -1.</_>
        <_>
          1 7 4 5 2.</_>
        <_>
          5 12 4 5 2.</_></rects>
      <tilted>0</tilted></_>
    <_>
      <rects>
        <_>
          1 11 3 2 -1.</_>
        <_>
          2 11 1 2 3.</_></rects>
      <tilted>0</tilted></_>
    <_>
      <rects>
        <_>
          1 17 22 2 -1.</_>
        <_>
          12 17 11 2 2.</_></rects>
      <tilted>0</tilted></_>
    <_>
      <rects>
        <_>
          2 3 8 20 -1.</_>
        <_>
          2 3 4 10 2.</_>
        <_>
          6 13 4 10 2.</_></rects>
      <tilted>0</tilted></_>
    <_>
      <rects>
        <_>
          2 9 14 12 -1.</_>
        <_>
          2 9 7 6 2.</_>
        <_>
          9 15 7 6 2.</_></rects>
      <tilted>0</tilted></_>
    <_>
      <rects>
        <_>
          4 9 5 12 -1.</_>
        <_>
          4 13 5 4 3.</_></rects>
      <tilted>0</tilted></_>
    <_>
      <rects>
        <_>
          5 9 7 6 -1.</_>
        <_>
          5 12 7 3 2.</_></rects>
      <tilted>0</tilted></_>
    <_>
      <rects>
        <_>
          7 10 16 9 -1.</_>
        <_>
          15 10 8 9 2.</_></rects>
      <tilted>0</tilted></_>
    <_>
      <rects>
        <_>
          8 14 8 4 -1.</_>
        <_>
          8 14 4 2 2.</_>
        <_>
          12 16 4 2 2.</_></rects>
      <tilted>0</tilted></_>
    <_>
      <rects>
        <_>
          9 21 12 1 -1.</_>
        <_>
          15 21 6 1 2.</_></rects>
      <tilted>0</tilted></_>
    <_>
      <rects>
        <_>
          11 0 11 24 -1.</_>
        <_>
          11 8 11 8 3.</_></rects>
      <tilted>0</tilted></_>
    <_>
      <rects>
        <_>
          11 8 2 4 -1.</_>
        <_>
          11 8 1 2 2.</_>
        <_>
          12 10 1 2 2.</_></rects>
      <tilted>0</tilted></_>
    <_>
      <rects>
        <_>
          12 12 1 4 -1.</_>
        <_>
          12 14 1 2 2.</_></rects>
      <tilted>0</tilted></_>
    <_>
      <rects>
        <_>
          15 8 4 4 -1.</_>
        <_>
          15 8 2 2 2.</_>
        <_>
          17 10 2 2 2.</_></rects>
      <tilted>0</tilted></_>
    <_>
      <rects>
        <_>
          17 7 4 2 -1.</_>
        <_>
          17 8 4 1 2.</_></rects>
      <tilted>0</tilted></_>
    <_>
      <rects>
        <_>
          19 14 4 10 -1.</_>
        <_>
          19 14 2 5 2.</_>
        <_>
          21 19 2 5 2.</_></rects>
      <tilted>0</tilted></_>
    <_>
      <rects>
        <_>
          19 16 4 8 -1.</_>
        <_>
          19 16 2 4 2.</_>
        <_>
          21 20 2 4 2.</_></rects>
      <tilted>0</tilted></_></features></cascade>
</opencv_storage>
